<?xml version="1.0"?>
<opencv_storage>
<opencv_ml_knn>
  <format>3</format>
  <is_classifier>1</is_classifier>
  <default_k>1</default_k>
  <samples type_id="opencv-matrix">
    <rows>4</rows>
    <cols>192</cols>
    <dt>f</dt>
    <data>
      16. 17. 16. 30. 54. 53. 167. 162. 83. 23. 12. 12. 15. 8. 9. 10.
      13. 13. 13. 12. 20. 21. 21. 34. 43. 48. 34. 41. 27. 25. 27. 15.
      23. 32. 18. 17. 12. 12. 11. 14. 8. 6. 5. 7. 4. 5. 3. 3. 10. 6. 5.
      2. 4. 8. 4. 2. 0. 1. 4. 0. 3. 0. 0. 0. 0. 0. 0. 0. 2. 5. 4. 9. 16.
      19. 25. 29. 21. 38. 53. 124. 125. 128. 38. 14. 15. 10. 16. 18. 17.
      15. 13. 11. 14. 22. 49. 59. 58. 46. 33. 26. 25. 23. 23. 17. 13.
      17. 13. 13. 11. 9. 11. 5. 3. 7. 3. 3. 9. 9. 6. 3. 4. 6. 5. 3. 4.
      2. 2. 2. 246. 179. 76. 55. 24. 18. 14. 8. 9. 9. 8. 13. 14. 14. 6.
      9. 7. 3. 8. 9. 6. 16. 9. 14. 13. 15. 25. 13. 9. 21. 18. 16. 16.
      29. 28. 47. 45. 43. 50. 42. 22. 7. 9. 10. 6. 4. 8. 5. 3. 8. 4. 5.
      8. 3. 1. 4. 1. 2. 2. 3. 3. 0. 1. 0. 18. 17. 10. 30. 37. 62. 215.
      125. 65. 28. 17. 18. 7. 11. 10. 12. 11. 7. 12. 15. 24. 32. 23. 32.
      34. 43. 36. 32. 25. 30. 19. 18. 17. 14. 27. 20. 17. 18. 19. 14. 4.
      9. 7. 4. 10. 6. 9. 10. 3. 4. 3. 7. 5. 3. 3. 2. 2. 3. 4. 3. 1. 0.
      0. 0. 0. 0. 0. 0. 5. 5. 5. 11. 13. 5. 28. 28. 37. 26. 57. 161.
      167. 54. 20. 17. 13. 11. 15. 15. 12. 9. 13. 17. 22. 23. 32. 68.
      60. 43. 35. 26. 26. 22. 20. 22. 30. 12. 16. 12. 7. 11. 8. 3. 9. 7.
      9. 6. 6. 6. 7. 7. 3. 3. 3. 3. 3. 4. 1. 4. 264. 173. 78. 40. 18.
      17. 11. 14. 11. 15. 13. 11. 12. 9. 11. 11. 11. 4. 8. 5. 6. 9. 13.
      6. 11. 7. 13. 8. 22. 20. 14. 21. 18. 27. 43. 49. 45. 43. 40. 27.
      24. 16. 11. 10. 6. 12. 9. 2. 9. 6. 8. 3. 0. 3. 6. 2. 2. 3. 4. 2.
      3. 1. 2. 1. 0. 0. 0. 2. 9. 37. 205. 146. 109. 45. 24. 23. 19. 22.
      21. 27. 13. 18. 14. 17. 13. 16. 13. 21. 23. 26. 17. 16. 22. 22.
      23. 20. 16. 18. 27. 19. 23. 16. 15. 15. 10. 23. 11. 17. 13. 10. 9.
      9. 8. 4. 4. 7. 6. 4. 5. 2. 8. 6. 5. 9. 3. 7. 11. 0. 0. 0. 0. 0. 0.
      0. 0. 0. 3. 8. 5. 13. 34. 48. 126. 151. 108. 62. 38. 28. 17. 19.
      16. 21. 28. 18. 30. 23. 28. 26. 16. 29. 24. 21. 21. 24. 27. 19.
      22. 20. 15. 17. 16. 17. 18. 14. 12. 10. 22. 10. 6. 6. 8. 5. 8. 4.
      4. 5. 8. 7. 6. 7. 6. 19. 287. 107. 85. 48. 28. 27. 23. 18. 21. 13.
      12. 22. 18. 21. 11. 11. 8. 12. 11. 10. 15. 19. 13. 17. 20. 22. 10.
      14. 11. 26. 18. 26. 19. 23. 16. 19. 18. 17. 14. 22. 13. 13. 16.
      12. 16. 9. 6. 8. 5. 1. 6. 3. 4. 6. 3. 7. 7. 3. 5. 8. 5. 5. 5. 5.
      0. 0. 0. 2. 6. 41. 192. 129. 138. 77. 36. 34. 18. 18. 19. 21. 12.
      19. 7. 10. 11. 8. 13. 12. 16. 11. 14. 14. 18. 31. 28. 19. 20. 26.
      29. 15. 18. 21. 12. 20. 21. 21. 20. 12. 21. 18. 3. 11. 7. 8. 8. 5.
      3. 7. 4. 5. 7. 3. 2. 0. 1. 1. 0. 0. 0. 0. 0. 0. 0. 0. 0. 0. 0. 1.
      7. 12. 31. 36. 89. 143. 169. 84. 57. 31. 23. 20. 24. 21. 10. 13.
      16. 11. 22. 13. 12. 18. 22. 25. 26. 31. 23. 22. 18. 27. 22. 15.
      17. 19. 27. 14. 14. 23. 12. 15. 12. 10. 5. 7. 7. 8. 6. 5. 6. 10.
      4. 2. 4. 2. 293. 121. 96. 54. 42. 28. 14. 19. 17. 20. 15. 14. 14.
      11. 12. 12. 7. 9. 7. 6. 8. 7. 11. 9. 8. 11. 17. 13. 17. 19. 15.
      17. 30. 28. 19. 18. 17. 15. 16. 15. 18. 22. 20. 15. 21. 15. 16.
      17. 6. 10. 10. 6. 3. 6. 3. 2. 3. 2. 4. 2. 1. 0. 0. 0.</data></samples>
  <responses type_id="opencv-matrix">
    <rows>4</rows>
    <cols>1</cols>
    <dt>f</dt>
    <data>
      1. 1. 2. 2.</data></responses></opencv_ml_knn>
</opencv_storage>
